<?xml version="1.0"?>
<opencv_storage>
<stage5>
  <maxWeakCount>10</maxWeakCount>
  <stageThreshold>-1.3089859485626221e+00</stageThreshold>
  <weakClassifiers>
    <_>
      <internalNodes>
        0 -1 18864 5.2907690405845642e-03</internalNodes>
      <leafValues>
        -7.6158940792083740e-01 3.4965034574270248e-02</leafValues></_>
    <_>
      <internalNodes>
        0 -1 2162 -8.7920054793357849e-03</internalNodes>
      <leafValues>
        3.7156713008880615e-01 -3.6699345707893372e-01</leafValues></_>
    <_>
      <internalNodes>
        0 -1 157728 2.7730345726013184e-02</internalNodes>
      <leafValues>
        -2.7396458387374878e-01 4.7486495971679688e-01</leafValues></_>
    <_>
      <internalNodes>
        0 -1 95303 -5.0081420689821243e-02</internalNodes>
      <leafValues>
        1.1815773695707321e-01 -9.2557746171951294e-01</leafValues></_>
    <_>
      <internalNodes>
        0 -1 81012 -5.2779637277126312e-02</internalNodes>
      <leafValues>
        -1.8923561275005341e-01 6.2627190351486206e-01</leafValues></_>
    <_>
      <internalNodes>
        0 -1 51074 -1.1504447087645531e-02</internalNodes>
      <leafValues>
        6.8990832567214966e-01 -1.6575154662132263e-01</leafValues></_>
    <_>
      <internalNodes>
        0 -1 68558 -4.4810341205447912e-04</internalNodes>
      <leafValues>
        3.2456266880035400e-01 -2.9157385230064392e-01</leafValues></_>
    <_>
      <internalNodes>
        0 -1 93515 2.3839831352233887e-02</internalNodes>
      <leafValues>
        9.5953084528446198e-02 -9.4295924901962280e-01</leafValues></_>
    <_>
      <internalNodes>
        0 -1 49167 -1.4092427445575595e-03</internalNodes>
      <leafValues>
        5.5520117282867432e-01 -2.0291884243488312e-01</leafValues></_>
    <_>
      <internalNodes>
        0 -1 49479 -1.0970374569296837e-02</internalNodes>
      <leafValues>
        -8.3941036462783813e-01 1.1279396712779999e-01</leafValues></_></weakClassifiers></stage5>
</opencv_storage>
